<?xml version="1.0"?>
<opencv_storage>
<my_nn type_id="opencv-ml-ann-mlp">
  <layer_sizes type_id="opencv-matrix">
    <rows>1</rows>
    <cols>3</cols>
    <dt>i</dt>
    <data>
      256 4 26</data></layer_sizes>
  <activation_function>SIGMOID_SYM</activation_function>
  <f_param1>6.6666666666666663e-01</f_param1>
  <f_param2>1.7159000000000000e+00</f_param2>
  <min_val>-9.4999999999999996e-01</min_val>
  <max_val>9.4999999999999996e-01</max_val>
  <min_val1>-9.7999999999999998e-01</min_val1>
  <max_val1>9.7999999999999998e-01</max_val1>
  <training_params>
    <train_method>BACKPROP</train_method>
    <dw_scale>1.0000000000000000e-03</dw_scale>
    <moment_scale>0.</moment_scale>
    <term_criteria><epsilon>1.1920928955078125e-07</epsilon>
      <iterations>300</iterations></term_criteria></training_params>
  <input_scale>
    1.4705882352941176e-02 -2.7500000000000000e+00 1. -255. 1. -255. 1.
    -255. 1. -255. 1. -255. 1. -255. 9.5693779904306216e-03
    -1.4401913875598085e+00 1. -46. 1. -255. 9.0909090909090912e-02
    -2.2181818181818183e+01 1. -255. 1. -255. 1. -46. 1. -46.
    9.5693779904306216e-03 -1.4401913875598085e+00 1. -255.
    9.3896713615023476e-03 -1.3943661971830987e+00 1. -255. 1. -255. 1.
    -255. 1. -255. 1. -255. 1. -255. 6.2500000000000000e-02
    -1.4937500000000000e+01 1. -255. 1.2048192771084338e-02
    -2.0722891566265060e+00 1. -255. 1.0471204188481676e-02
    -1.6701570680628273e+00 1. -255. 1. -46. 1.4598540145985401e-02
    -1.6715328467153283e+00 1. -255. 1.0471204188481676e-02
    -1.6701570680628273e+00 1. -255. 1.0471204188481676e-02
    -1.6701570680628273e+00 1. -255. 1.4285714285714285e-01
    -3.5428571428571423e+01 3.3898305084745763e-02
    -7.6440677966101696e+00 1. -255. 1. -255. 1. -255.
    1.3422818791946308e-02 -2.4228187919463089e+00 1. -255. 1. -255. 1.
    -255. 1. -255. 1. -46. 1. -255. 1. -255. 1. -255. 1. -255. 1. -255.
    1. -255. 1. -255. 1. -255. 1. -255. 1. -255. 1. -255. 1. -255. 1.
    -255. 9.5693779904306216e-03 -1.4401913875598085e+00 1. -255.
    9.5693779904306216e-03 -1.4401913875598085e+00 1. -255. 1. -255. 1.
    -255. 1. -255. 1. -255. 1. -255. 1. -255. 1. -255. 1. -255. 1. -255.
    1. -255. 1. -255. 1. -255. 1. -46. 9.8039215686274508e-03
    -1.5000000000000000e+00 1.2500000000000000e-01
    -3.0875000000000000e+01 1. -255. 1. -255. 1. -255. 1. -255. 1. -255.
    1.0256410256410256e-02 -1.6153846153846154e+00 1. -255. 1. -255. 1.
    -255. 1. -255. 1. -255. 1. -255. 1. -46. 9.5693779904306216e-03
    -1.4401913875598085e+00 4.3478260869565216e-02 -1. 1. -46. 1. -255.
    1. -255. 4.0816326530612242e-02 -9.4081632653061220e+00 1. -255.
    9.7087378640776691e-03 -1.4757281553398056e+00
    8.1632653061224497e-03 -1.0816326530612246e+00 1. -255. 1. -255. 1.
    -255. 1. -255. 1. -255. 1. -255. 1. -255. 9.5693779904306216e-03
    -1.4401913875598085e+00 4.5454545454545456e-02 -1.
    1.0582010582010581e-02 -1.4867724867724867e+00
    7.9681274900398405e-03 -1.0318725099601593e+00 1. -255. 1. -255. 1.
    -255. 1. -255. 1. -255. 1.1764705882352941e-01
    -7.2352941176470589e+00 1. -255. 1. -255. 1. -255. 1. -255. 1. -255.
    1. -46. 9.5693779904306216e-03 -1.4401913875598085e+00 1. -46. 1. 0.
    1. -255. 1. -255. 1. -255. 1. -255. 1. -255. 1. -255. 1. -255. 1.
    -255. 1. -255. 1. -255. 1. -255. 1. -255. 1. -46.
    9.5693779904306216e-03 -1.4401913875598085e+00 1. -46.
    4.4444444444444446e-02 -1. 1.1560693641618497e-02
    -1.9479768786127167e+00 1. -255. 1. -255. 1. -255. 1. -255. 1. -255.
    1. -255. 1. -255. 1. -255. 1. -255. 1. -255. 1. -255.
    1.8181818181818182e-01 -9.3636363636363633e+00 1. -255.
    3.3333333333333331e-01 -1.6333333333333332e+01 1. -46.
    1.0471204188481676e-02 -1.6701570680628273e+00 1. -255. 1. -255. 1.
    -255. 1. -255. 1. -255. 1. -255. 1. -255. 1. -255. 1. -255.
    1.2422360248447204e-02 -2.1677018633540373e+00 1. -255. 1. -255. 1.
    -255. 1. -255. 1. -255. 1. -255. 1. -255. 1. -255. 1. -255. 1. -255.
    2.5641025641025640e-02 -5.5384615384615383e+00 1. -255. 1. -255. 1.
    -255. 1. -255. 1. -255. 1. -255. 1. -255. 1. -255. 1. -255. 1. 0. 1.
    -255. 1. -255. 1. -255. 1. -255. 1. -255. 1. -255.
    8.1300813008130090e-03 -1.0731707317073171e+00 1. -255. 1. -255. 1.
    -255. 1. -255. 1. -255. 1. -255. 1. -255. 1. -255. 1. 0.
    3.0303030303030304e-02 -6.7272727272727275e+00
    2.3809523809523808e-02 -2.0952380952380949e+00 1. -64.
    7.4074074074074070e-02 -1.7888888888888889e+01
    6.6666666666666666e-02 -1.8000000000000000e+00
    1.2500000000000000e-01 -4.7500000000000000e+00
    1.6000000000000000e-02 -3.0800000000000001e+00 1. -255. 1. -255. 1.
    -255. 1. -255. 1. -255. 1. -255. 2.7777777777777776e-02 -1.
    2.8571428571428570e-01 -7.1857142857142847e+01 1. 0.
    9.5693779904306216e-03 -1.4401913875598085e+00
    1.2195121951219513e-02 -1.1219512195121952e+00
    3.7037037037037035e-02 -1.3703703703703702e+00
    9.5693779904306216e-03 -1.4401913875598085e+00
    8.1632653061224497e-03 -1.0816326530612246e+00
    8.1632653061224497e-03 -1.0816326530612246e+00
    1.3986013986013986e-02 -1.3776223776223777e+00
    3.7037037037037035e-02 -3.0370370370370368e+00
    5.5555555555555552e-02 -1.5555555555555554e+00
    8.6580086580086580e-03 -1.2077922077922079e+00
    8.1632653061224497e-03 -1.0816326530612246e+00 2. -21.
    5.5555555555555552e-02 -1.5555555555555554e+00
    2.5000000000000000e-01 -1.2500000000000000e+00
    8.1632653061224497e-03 -1.0816326530612246e+00 1. -255.
    8.8495575221238937e-03 -1.2566371681415929e+00
    1.8018018018018018e-02 -1.8288288288288288e+00
    1.0471204188481676e-02 -1.6701570680628273e+00
    9.3896713615023476e-03 -1.3943661971830987e+00
    1.5384615384615385e-02 -1.1538461538461540e+00
    4.4444444444444446e-02 -3.0444444444444447e+00
    1.6806722689075630e-02 -1.7731092436974789e+00 1. -10. 1. -10.
    2.2222222222222221e-01 -1.2222222222222221e+00 1. -10.
    8.1632653061224497e-03 -1.0816326530612246e+00
    2.0000000000000001e-01 -1. 1.3605442176870748e-02
    -1.1360544217687074e+00 1. -10. 8.1632653061224497e-03
    -1.0816326530612246e+00</input_scale>
  <output_scale>
    1. 0. 1. 0. 1. 0. 1. 0. 1. 0. 1. 0. 1. 0. 1. 0. 1. 0. 1. 0. 1. 0. 1.
    0. 1. 0. 1. 0. 1. 0. 1. 0. 1. 0. 1. 0. 5.2631578947368418e-01
    4.9999999999999994e-01 1. 0. 1. 0. 1. 0. 1. 0.
    5.2631578947368418e-01 4.9999999999999994e-01 1. 0. 1. 0.</output_scale>
  <inv_output_scale>
    1. 0. 1. 0. 1. 0. 1. 0. 1. 0. 1. 0. 1. 0. 1. 0. 1. 0. 1. 0. 1. 0. 1.
    0. 1. 0. 1. 0. 1. 0. 1. 0. 1. 0. 1. 0. 1.8999999999999999e+00
    -9.4999999999999996e-01 1. 0. 1. 0. 1. 0. 1. 0.
    1.8999999999999999e+00 -9.4999999999999996e-01 1. 0. 1. 0.</inv_output_scale>
  <weights>
    <_>
      -1.0576430785950625e-02 4.2213288925696500e-03
      1.0821340041809609e-03 -1.2637788834730010e-02
      6.0334746755879316e-03 -5.7407652723476363e-04
      -2.2347291697526179e-04 1.3823718927301846e-03
      6.5761592357520869e-03 3.6757756851955965e-03
      1.9119944212550929e-03 -6.4081608281463503e-04
      -3.4133715570219443e-03 -3.5940501525300885e-03
      -7.5906433590468508e-04 7.9085484991208658e-04
      4.6304113684944009e-03 5.2245084383409886e-03
      6.9520611864595642e-04 -1.1749247869383686e-03
      7.1976839157452729e-03 3.9630923013030620e-03
      5.4821963212349500e-03 4.5682925188415355e-03
      1.2914101705729509e-03 5.0569653860899665e-03
      4.5583308353638842e-03 -4.7300376068200103e-03
      5.9685952104338779e-03 -4.6005074359701014e-03
      -7.8134187609357614e-03 -2.4673917176847330e-04
      -1.4193274756726609e-03 2.2890070356473588e-03
      -1.2661027447330255e-03 6.7178368998838103e-03
      2.2522510372015156e-03 7.7490468049950132e-03
      -2.7634025320132892e-03 6.7945714913456663e-04
      -1.6404097198442647e-03 1.2248854498673530e-02
      7.3441468354878327e-03 -7.6835032005627109e-03
      -6.7469584794369467e-03 5.7334724747696618e-03
      -3.2707859668475920e-03 -2.2074299542697070e-03
      2.3918527541416288e-03 -5.4363865842363499e-03
      -3.0035654448148088e-03 1.5501265928924298e-03
      5.7451431532205615e-04 -4.8198256564624502e-03
      7.4257130328678677e-03 6.1862260539440163e-03
      -2.3148316747271486e-03 2.6366774545244014e-05
      -2.6344329869345210e-03 2.4500796986380441e-03
      7.4923708978122195e-03 -8.2853216581595286e-03
      -3.8843410807800904e-03 2.5808354553483489e-03
      -7.1207925751457012e-04 5.5094327644836264e-03
      -5.4058990587612524e-03 7.3275113961233469e-03
      6.5500461556083488e-04 -2.7382670559355587e-03
      -9.2325704337192279e-03 9.9653407438402078e-03
      1.4209841410670449e-03 -1.0526544797000094e-03
      1.4200425774193710e-03 5.6857784452764735e-03
      -7.1530809183460997e-03 7.3979814100477012e-03
      3.7239639825443517e-03 -4.9504272859837535e-03
      6.1979838492773158e-03 7.5064508396653767e-03
      -6.6900829093865400e-03 3.3681892599730584e-03
      -8.2897730988502959e-04 -4.7029974561896793e-03
      -4.6365781087762056e-03 -3.3797342847089085e-03
      6.8884481040766632e-03 3.5478705112114302e-03
      -6.5571114923654978e-04 4.1637280467261700e-03
      4.2167906937112358e-03 -2.0508017934814994e-03
      2.6558636863456921e-03 5.0937781739329203e-03
      3.2882543276502286e-03 -2.4556210210627331e-04
      -4.9603768060213545e-03 -8.5381780168275934e-04
      2.3982149656899435e-03 -3.8154986752776871e-03
      1.2821594185055485e-03 -4.0452684687005977e-03
      2.8904264795692170e-03 1.5054399594807536e-02
      8.5418627342966711e-03 -1.0315743812208537e-02
      5.2582653309940705e-03 -1.0675110729061507e-03
      5.7791731368454858e-03 6.3691096365660572e-03
      7.6902318702620305e-03 -1.0707000626847565e-02
      -7.0499224511104495e-03 1.0098113562013270e-02
      6.5554842185609336e-03 5.6813098029397302e-03
      4.3961768196626927e-03 -2.2239957087443331e-03
      4.5717871993566596e-03 5.3143381343638465e-03
      5.6847880644009564e-03 7.1761700766000648e-03
      -1.9674442250688863e-03 -5.8721944093906653e-03
      -2.2825094760641077e-03 1.2426116587555694e-02
      -3.7947561518664004e-03 -7.1117149963679984e-03
      6.0096983203772195e-03 -3.0776459605025481e-03
      2.1234839729533184e-03 1.7725036819692772e-03
      6.2862663880606136e-03 -1.2637653433182135e-02
      5.2864349618589508e-04 -2.1037093179557338e-03
      9.0239455492161446e-04 3.7785344345003333e-03
      -6.2782387118374486e-03 1.2269892199546046e-03
      6.2685972874339749e-03 -9.3615490974073914e-03
      -5.3172559270517651e-03 3.5378992888393727e-03
      -6.8452018774844961e-03 -5.8142115318983237e-03
      -6.4153607345792821e-03 9.0539130110692430e-03
      8.5533755784151667e-03 -9.7981500959844117e-03
      -5.4611185340766840e-03 9.6087925954657684e-03
      1.2332786325231714e-03 -5.1200759335654567e-03
      -2.6813752201993099e-03 7.8438563514043359e-03
      3.4185433858637884e-03 -5.5085034241668038e-04
      -3.8682323932744105e-03 2.5863422698708029e-03
      -5.6451029303246176e-03 -1.6131319206694804e-03
      3.8090654533134119e-03 -6.0502328839977964e-04
      6.3427728146622717e-03 1.6183204691015117e-03
      3.5672383142343195e-03 9.5157821619773018e-03
      3.6143530119530911e-03 -2.6204892972257485e-03
      -5.9909558941530650e-03 -1.8704881641004392e-03
      -6.5014727583742179e-03 -2.6516398203003939e-03
      -7.1663980494657137e-03 -4.4100008428292099e-03
      -6.0538189538006555e-03 5.6519890148472602e-03
      -3.3263482812423157e-03 5.4183088422807731e-03
      4.3567693828645898e-03 6.8396547728612651e-03
      6.2309970402336596e-03 7.4276348377517835e-03
      -8.3870935699605531e-04 4.8731496427108527e-03
      5.0127236926181713e-03 4.3181499123920849e-03
      1.8497413421658189e-03 4.8265413923573707e-03
      -1.5902912190037938e-03 -2.1655303283695474e-03
      3.3844920706563248e-03 5.7699423300306156e-04
      -9.7107265986474988e-04 4.5871035370846662e-03
      -9.2828816668375565e-04 -3.0406103106091309e-03
      -2.3402553749122469e-03 -6.1350093799962119e-03
      -4.8548080779089913e-03 4.0716442840749833e-03
      -4.1407400951885423e-03 2.3254146349098279e-03
      -4.1983446692952292e-03 -5.7137714800024261e-03
      -2.1183796681564170e-03 3.0103640261278657e-03
      -1.1131527053846980e-03 -6.3193299938630763e-03
      -6.8439034033163674e-03 7.5338880126106511e-03
      3.7099815945338616e-03 -5.5871488521859981e-03
      2.6108961510317198e-03 1.3446311194993486e-03
      4.9632016147163789e-03 5.2093084783597999e-03
      4.0294760602492524e-03 6.3732965295790261e-03
      -3.8430130955090960e-03 4.2079039885727096e-03
      3.3748401092404262e-03 -6.5128029201407048e-03
      5.7693286415727071e-03 9.9360513928335899e-04
      -5.6177952770803561e-03 -5.5934574635788234e-03
      -2.5358021574917598e-03 -6.0625160544414277e-04
      7.0557850522964000e-03 6.0843196431676237e-03
      3.9611045843236927e-03 -3.1705385931012483e-03
      -1.6415300831151364e-04 -2.7927510291516490e-03
      4.6520939223992138e-03 2.1195953521978336e-03
      -4.6399044120439365e-03 -1.4104480840714858e-03
      7.4714078872750020e-03 2.5687482543853630e-05
      -1.9627642206778120e-03 -9.6071659324762602e-03
      -4.9722306489381220e-04 3.5195640961410896e-03
      -3.8006131328107368e-03 3.0299052205101525e-03
      -5.3199472544345162e-03 -3.6978674334977903e-03
      -2.9172225533038295e-03 1.5368233666290141e-03
      2.3550811312932798e-03 -1.0722120470680323e-02
      1.0882821909033518e-03 -3.6424948579796590e-04
      1.2878605139618232e-03 2.8050099642187203e-03
      -4.0598532515384441e-03 -5.1392984520518851e-03
      1.8643018067743434e-03 3.7565272231520966e-03
      4.8432340630687482e-03 -1.9690308552605491e-03
      5.1883298111674112e-03 -6.3500511814898854e-03
      -6.0286253134513657e-03 4.9409643715377987e-03
      3.6680900413695820e-03 -3.3120519541926024e-03
      -6.2777936874848107e-03 6.2254305525607624e-03
      4.2180982995008286e-03 -7.3268571426862855e-03
      -1.4632283181890645e-03 6.4080051867022418e-03
      1.1742967882530477e-03 2.1273384190055953e-03
      -4.5373749762771158e-03 2.3325204943901966e-03
      -2.1854043118499731e-03 4.7038173923194988e-03
      -5.6824251337923414e-03 -6.2572054476136543e-05
      -7.1867455897045261e-03 4.8195519028238470e-03
      2.7136962193642306e-03 4.3007268567185107e-03
      -2.5780995666991637e-03 2.1527427126267237e-03
      7.2348839143813841e-03 -5.1349714327243584e-03
      -7.3569446075559741e-03 2.1772691241541652e-03
      1.3199022979190976e-03 2.5910606896415080e-03
      -3.9218520600024023e-03 -2.8181154587448966e-03
      -3.6091532428138380e-03 3.5739686208138884e-03
      -2.3182987701250071e-03 7.0060641721748206e-03
      -3.1330514492488378e-03 -6.4167000346448440e-05
      -5.1900713168251175e-03 -1.4829112224660258e-03
      1.0175730776048678e-04 5.8583639635337165e-03
      5.3105836480214627e-03 -6.3888277407302720e-03
      3.0794965707786376e-04 1.3015654074657216e-02
      -1.5939009024688853e-03 -1.0790370156707101e-02
      -2.2977352783109125e-03 -4.3422437187616587e-03
      -9.0007876152208444e-03 3.9646354099105181e-03
      -5.8983691478462089e-03 -4.0250332209628269e-03
      5.2269606025530102e-03 7.3014375771528455e-03
      -3.0020341161659182e-03 3.6236863768438700e-03
      5.6570097571126948e-03 6.5473922731569536e-03
      9.7402297001872838e-04 2.4342986935921907e-03
      5.8116542062472702e-04 4.0648694921677324e-03
      -1.0433624861906673e-03 8.6013097582285543e-04
      6.4158977266769437e-03 -1.2768350218055852e-03
      -6.7193478562189782e-03 -4.1152281853009006e-04
      1.8575689670273130e-03 3.8115038421638017e-03
      -2.4064413009927013e-03 5.9024309653801545e-03
      3.2435703893135123e-03 -1.0441869951983250e-02
      -2.1871113193340356e-03 7.7646130604506897e-03
      -6.6310674524364503e-03 4.7716778951935506e-03
      -2.8541175884841843e-03 1.4991274801996314e-03
      -1.8969909287623865e-03 -4.3105289272221339e-04
      6.6651877652149768e-03 5.3595035567881354e-03
      -5.7544161442977843e-04 5.8254526371541906e-03
      -7.1298812533623513e-03 3.2452516931750397e-03
      -2.0312064510522717e-03 8.4194348529331156e-04
      -4.1100366775478799e-03 4.5002033150038142e-03
      -1.0104637164885131e-03 -2.8837065936590696e-03
      4.7581793945394822e-03 -5.3720878800739514e-03
      2.0037353244903577e-03 5.1222818704097445e-03
      -1.4282023997920859e-03 -1.0359769745386447e-03
      -6.3369055202191172e-03 -1.9403635903997578e-03
      8.5222562734629994e-03 -1.2389446488218507e-03
      -8.4649413672729205e-03 1.4900950373070068e-03
      2.4118412256592570e-03 -1.4526096353862383e-02
      3.2609252084062510e-03 5.3964359048117366e-03
      -6.0918459915574388e-03 5.4691972697413441e-03
      -2.6687020076166688e-03 -3.9060380978892494e-03
      -8.2376671355891755e-04 -2.0730970547531992e-03
      3.7728792606329187e-03 1.7356110034590245e-03
      -3.8167423794197137e-03 6.7077232247046027e-03
      -7.1805342584866563e-03 -5.1165240723699537e-03
      -2.3309287053705561e-03 5.8375849039119417e-03
      6.7910167052607686e-03 -3.6158687229447795e-03
      -4.6913828034944958e-03 5.4934793487729835e-04
      -5.2484571854954044e-03 3.8278068458519909e-03
      6.8819937052485983e-04 -1.2864521257657423e-02
      -8.9049477839542104e-03 -3.4961102223030489e-04
      8.8795161411763524e-03 -1.4660827305032546e-02
      -5.0483680131229534e-03 4.7747517642068018e-03
      3.9021778034922044e-03 -1.5049615230384675e-03
      1.6908669555132125e-03 -3.7015631765030814e-03
      -6.7252346198011506e-03 -1.9096177898440855e-03
      5.2951527949674504e-03 4.0688353201038755e-03
      -5.4613648420390008e-03 -7.1758060690060629e-03
      4.8074676279150587e-03 5.1735994737065853e-03
      -6.7106137083185980e-03 4.7981777355798651e-03
      -3.9779307219719512e-03 1.1030593382985402e-03
      -4.9782746054465978e-03 -6.0122094244937523e-04
      -3.0937343378655848e-03 5.1325259482250894e-03
      3.5046164983413572e-03 -1.0086278491618025e-03
      -7.3879043580073458e-03 -6.9030901320480597e-03
      6.5294037357108434e-03 -8.0358330858720502e-04
      5.8275041764943632e-03 -4.4534533008141103e-04
      7.8515958147243742e-03 -9.9963273772342535e-03
      -3.7982838741523698e-03 6.8288626620121263e-03
      1.0900544833047556e-02 -1.2035637805636360e-03
      -8.9130292351499840e-03 1.1662445103434194e-02
      -6.1023687443697112e-03 1.3140094432060731e-02
      -3.1431274332606701e-04 -1.0529927041062761e-02
      -4.7927057176860655e-03 1.1150870511285289e-02
      -6.8483018882252846e-04 -1.2851124158283838e-02
      6.8416690923387728e-03 6.6596981547148680e-03
      -1.1671614504295640e-03 -3.5005777499383189e-03
      -9.1473688648057068e-04 -1.3740768293602314e-03
      -1.1445938801511670e-03 -5.9670154237076939e-03
      -3.4435657386806869e-03 4.5620117877709002e-04
      6.7243773210204447e-03 2.5333613827018377e-03
      -5.5704433452292762e-03 7.9600094916299213e-03
      -4.2024623478982099e-03 -7.0572222095816907e-03
      -7.2652848916880935e-03 1.9710598150424804e-03
      -8.5968896759823586e-04 -4.1472238335377764e-03
      8.7043539327022659e-03 -1.7806463641186081e-04
      -1.6567383319250864e-03 4.1247562969029478e-03
      3.1497765876767926e-03 8.0202845492716116e-03
      7.6978785076375223e-03 4.0064847064590695e-03
      -2.4781023135281919e-03 5.0028066652919581e-03
      6.3858165406913076e-03 3.6409753060503668e-03
      5.6434822704461160e-03 6.2795735211199988e-03
      3.9141959233075152e-03 -5.1218683965270682e-04
      -4.3014066156091957e-04 3.0093821434059964e-03
      -2.2246868695971863e-04 3.6267247076742452e-03
      -4.0015592427966673e-03 7.4938756555768737e-03
      4.0809203374959843e-03 2.7350735811938467e-03
      -6.3681252003691888e-03 3.5337715947742696e-03
      -2.8794639722485803e-03 -7.1110175565666650e-03
      -1.2394010796772236e-03 4.2485527273968085e-04
      7.2643857244664061e-03 -1.2873101785737147e-02
      -6.5438858358826697e-03 5.0899237418444111e-03
      7.7043213744242018e-03 -2.7625095044877097e-03
      9.8692513123818291e-04 -7.7492991985874888e-03
      -6.7738223239945539e-04 3.6844234590965664e-03
      -3.5965725342188039e-03 -2.5055748346126004e-03
      6.5434985623568287e-03 -6.3225488002369400e-03
      -2.3350743175481400e-03 -1.5231157235784927e-04
      -6.9213912397739384e-03 -5.0295208474181920e-03
      -3.9964350718954987e-03 7.4269286966012335e-03
      -1.5158844039566172e-03 -4.2744169061153577e-03
      3.6930751334310584e-03 7.2305433153057189e-03
      6.1240883580961211e-03 -7.1605415590508320e-03
      -2.7224462080414564e-03 9.1221402454691436e-04
      -2.2878315281129459e-03 7.2862365371744921e-03
      5.8496649803727405e-03 -1.4430600196750983e-03
      -4.0359658516054830e-03 -5.3464267233667880e-03
      -6.5992245414969982e-03 -7.4483506186586498e-03
      -5.1696588110431889e-03 -7.0451372659082615e-03
      2.5767612567505912e-03 3.1780047875624236e-03
      2.4775506927186687e-03 -3.6226429978970043e-03
      -4.3773010756153804e-03 9.2226813999359578e-04
      -2.2085399308180726e-03 -6.5249787694183613e-03
      -4.4779294337990811e-03 2.4735099833914573e-03
      -7.5835238510609717e-03 6.7063586878224335e-03
      4.5429494267129264e-03 -3.0887056396559096e-04
      4.3872161956607907e-03 -5.7434259818735147e-03
      7.4010739742094451e-03 3.9027611512620309e-03
      4.0725953759396969e-03 6.5304521794388257e-03
      -5.1299665343433054e-03 -4.3534763925411925e-04
      4.7520851060284081e-05 1.1130452248921670e-03
      3.0056468358474423e-03 7.2659440370198428e-03
      7.8902344932212723e-03 -3.7023662311801613e-03
      -5.7795673563423976e-03 -5.4844967387228643e-03
      1.9374195481277208e-03 -4.8696933553813923e-03
      7.2363900385814502e-04 2.0914264711787808e-03
      2.1630287754275594e-04 -6.8227047217659436e-03
      1.0786686726708013e-02 -1.2208850577842160e-02
      4.3963652217941717e-03 1.0519971493068249e-02
      4.5016241004522065e-03 3.1072771708827024e-03
      -2.2001784314961280e-03 2.9118032085649601e-03
      7.2574364135436498e-03 -5.9299535673639847e-03
      6.3719255992743850e-03 -2.2851546663876206e-03
      4.7147016029989415e-03 -5.2285870437887953e-03
      5.6968390051349528e-03 6.0922282372123356e-03
      -8.8223460020363091e-04 1.2832711498442675e-03
      8.0989014487971853e-04 4.3582585268140970e-03
      1.0100355000483268e-03 7.1794310605243954e-03
      2.3616342636891166e-03 1.7429966506876597e-03
      -7.3503393688656646e-03 -3.4341108378501410e-03
      1.2221009752478511e-03 4.8740608977170209e-03
      -2.6275188036219204e-03 -7.5658110876244844e-05
      3.1750474210438364e-03 4.2907901988486225e-03
      3.0879657863999367e-03 2.7880927181643976e-03
      -7.3524376878219416e-03 6.3833682923200652e-03
      -3.9552860324038571e-03 -1.2418302587111733e-04
      2.2383131144100119e-03 2.9503269233737395e-03
      -1.7496651703462541e-03 -2.3940928728507695e-03
      2.9194145348779344e-03 2.1354005327375012e-03
      -4.6189495082596274e-04 6.5507712243457342e-03
      -5.1253287681763682e-03 4.9695028951466666e-03
      1.1797188222863747e-04 1.3028373507819265e-02
      5.1292483809058029e-03 -8.5718135858915499e-03
      -4.8697560879935953e-03 -4.3572792623466292e-03
      6.1645218443382790e-03 -2.9714118275348516e-03
      1.6095285222259388e-03 2.4917596677101013e-03
      -3.0736696657715458e-03 -8.7001250908684622e-04
      -1.9163060308137075e-03 6.7067083452493886e-03
      -1.5761907415438659e-03 -5.7954402707015664e-05
      -7.4723629854774355e-03 1.8804294636731611e-03
      6.3464974325014838e-03 -4.9783828231806894e-03
      -3.2105302204899736e-03 -7.7525609754972033e-03
      3.3302628596383350e-03 -4.4862372655382083e-03
      4.6166020886624229e-03 1.6358892308515535e-03
      -6.2602785241753873e-03 6.3301630122808853e-03
      4.7501662544462961e-04 -7.0779357896627176e-03
      4.8225123885170338e-03 7.2627680063475919e-03
      -3.9095081267862932e-03 -3.5234029886394235e-03
      -1.9588835059342635e-03 -6.1534474742964947e-03
      -3.5165755140614038e-03 7.2386032259581193e-04
      -2.6275894987587618e-03 6.5129864562359042e-03
      7.5008419310198370e-03 -1.5367824742565184e-03
      9.0261603569797557e-04 -4.4311601459980730e-03
      1.1185762025464538e-05 -7.6707969352200322e-03
      6.1576119005114479e-03 -5.6276572499484459e-03
      -4.7920972229458392e-03 1.9304673847216278e-03
      5.2255064355613426e-03 -2.5912598750071876e-03
      2.3955818913856848e-03 3.3934860725688800e-03
      -2.8794878713562155e-03 6.1403266518658423e-03
      1.8911789069242600e-03 -1.2912656973881886e-02
      1.3680043212268098e-03 1.0177816433166840e-02
      -6.5332766994843266e-05 3.3496659217182351e-03
      -3.0293723926065261e-03 -7.0741138627300505e-03
      4.1914442191660767e-03 2.7078554797554839e-03
      -6.2396587344266535e-03 1.4794819169435883e-03
      -2.7908119084290770e-03 -4.8546367890625270e-03
      -1.1258961323559068e-03 -2.5979280699157149e-03
      -1.4390844260656116e-03 6.3886001398336320e-03
      -2.2108352564869180e-03 -2.0194026709775036e-03
      -6.3493257253813152e-03 6.6436949868251879e-03
      8.9378982078155674e-04 7.0611362738417591e-03
      -6.5072097590392118e-04 5.0047213506917944e-03
      -3.3836150029470336e-03 6.6258081734165896e-03
      -5.2388089178885136e-03 1.4637096225566426e-03
      -4.1741952908932655e-03 5.9907315611405568e-03
      4.7719266532868137e-03 -6.7450364094863643e-03
      -2.2431900336007033e-03 1.6478012299450874e-03
      6.1290484414358313e-03 -2.9981744336350954e-03
      -4.7854064545916940e-03 5.2935706480204837e-03
      7.3166596813494737e-04 -6.2715534034488204e-03
      6.4147397348604624e-03 -4.0858499751536886e-03
      -2.7811231053939327e-03 -1.0533249320018812e-02
      -5.9779594790027677e-03 1.3258273645914654e-02
      1.0648388589560177e-03 -7.3178451547768336e-03
      -2.9609698624283309e-03 -6.5344891943732259e-03
      4.8031066339276410e-03 -5.5344123333047257e-03
      2.8102689486413407e-03 4.9160563709278416e-03
      -1.3810583346506363e-03 2.3314149526172767e-03
      -4.2594691636037921e-03 -4.9298034837272570e-03
      2.2414213964303963e-03 -6.1834593708831346e-03
      7.7186219342900535e-03 -5.3693498999802421e-03
      1.8809881665801356e-03 7.3552467363238701e-03
      -4.5461262727688606e-03 5.7154518027190378e-03
      6.0963610537069345e-03 1.4177610281947452e-03
      -6.1413086833689585e-03 -2.2127470186670134e-03
      5.9195158642074655e-04 -1.4180825959926946e-03
      7.6757840681000661e-03 4.3159712352693188e-03
      -5.6164292437978008e-04 -4.8880990417229106e-03
      1.2273339263911877e-03 5.5008764583843357e-03
      6.6379821063629373e-03 1.7325966221897800e-03
      -7.3118524739195431e-03 5.7835833484986467e-03
      -8.6558360117986550e-04 -3.4725530405504998e-03
      -2.8147621251623694e-03 2.3268711521282218e-03
      -4.6516712328652129e-04 5.2846454360360078e-03
      1.5324092128894068e-03 -2.2543850995125933e-03
      -7.2533014004646330e-03 3.6435161759165858e-03
      -3.5328003326668390e-03 -2.4725196468347293e-03
      -1.7422142708181482e-03 4.4511099751898733e-03
      -6.4408231059744220e-03 -2.7793246365589654e-03
      -1.2111315077565292e-03 -2.5488695472700041e-03
      -2.7629100935806163e-03 -5.3071130043869878e-04
      2.8824671746216952e-03 -3.5533055449794865e-03
      5.8340452611305490e-03 3.7752829937229750e-03
      -9.2439740242144847e-04 -7.4775530829995947e-04
      -7.2718853783244912e-03 1.6226850749074494e-03
      -1.5954827123627912e-03 -7.7108027853361460e-03
      2.1152886535431847e-03 1.2336503090466909e-02
      -3.9950443364029451e-03 7.4496289984384576e-03
      4.8717409165749750e-03 1.7337898208094585e-03
      -1.9275675629951505e-03 6.6825465784759695e-03
      1.2476767857298855e-03 2.4539662767270039e-03
      3.7769117604374591e-03 -7.8383666561477224e-03
      1.9993039713669938e-03 -3.8344586191050222e-03
      3.4022600724854519e-03 5.7205731627255681e-04
      8.9445378198366253e-04 -5.1118222010811869e-04
      -6.5621404291157518e-03 -2.1715806656459531e-03
      -2.5366025207937790e-03 6.6689205560015634e-03
      -5.6584340444043486e-03 5.0163054334484451e-03
      -5.3400611629888680e-05 -3.4964419261686802e-03
      4.5975804114752805e-03 1.3327825278453430e-03
      7.5485780327104500e-03 6.7127111759784823e-03
      -4.1936970559160126e-05 3.6718748023591209e-03
      -7.5170401052276582e-03 4.9517607891972461e-03
      -5.0416610205122210e-05 4.1253944884301072e-03
      -2.2376615607143276e-03 4.9930650241956651e-03
      -1.0432472099710412e-02 1.2317521923798459e-02
      2.7588097159439579e-03 8.4835822497929530e-04
      -3.6345960295216429e-03 -4.3608157036224993e-03
      -7.8381363602739972e-03 1.1309747403962829e-02
      -4.4243319042154908e-03 4.8032266316334060e-03
      -4.5447496673993622e-03 -6.3282314442957349e-03
      2.8684306142225647e-03 2.0784856665889279e-03
      -3.1440357747686025e-03 -3.3436789362813412e-03
      -3.5747235552305743e-03 -1.3586735795436063e-02
      -4.1106462568724269e-03 7.6364407297138401e-03
      9.5588950047762362e-03 -6.4493223516040223e-03
      -6.7327105029675594e-03 4.1279792108982185e-03
      -6.8308157486493713e-03 3.4408982756901100e-03
      4.2156261521116367e-03 4.3722037364762745e-05
      -2.3616146899397850e-04 -6.9284326740707844e-03
      2.0485533060998220e-03 -8.8552651034505902e-05
      -1.6967068249781937e-03 -4.4558816680813221e-03
      3.8558966558429708e-03 -5.6719751166736856e-03
      -7.0044090695869227e-04 4.2343584336937820e-03
      -5.4202338798312374e-03 5.9873014167789425e-03
      4.8929000559807933e-03 -6.8547424272300400e-03
      6.1441580299523367e-04 -6.1411597738026350e-03
      7.2094265383086265e-03 3.9461083247075640e-03
      -1.6557140881556115e-04 7.1111765628565401e-04
      -2.8474271329412448e-03 2.5957589607916894e-03
      4.0564279993184904e-03 -4.4529879572921920e-03
      2.9350690769496175e-03 -8.3970356119971671e-03
      -3.1953373417522657e-03 4.2472306927250807e-03
      -3.5334519729439229e-03 -3.4976654749158112e-03
      -5.2568453661727792e-03 6.8615452713738983e-03
      -6.6129933397285718e-03 -2.7965124983212000e-03
      4.3251410033680864e-03 -2.6733980067868526e-04
      -1.0291734531892234e-02 5.1954072342985684e-03
      4.6304019091438506e-03 -2.9827769394650027e-03
      6.9278050994234350e-04 -6.7622294685333890e-03
      2.2515293240229269e-05 7.3366906001924902e-03
      3.2869133358533901e-03 9.9266436566555587e-03
      4.5530982090130007e-03 -1.2708200347451244e-02
      1.9028685344443603e-03 -6.2429825433707774e-03
      -5.0954263401481554e-03 -3.8792371258455818e-04
      -2.6759443407430466e-03 -3.8989127181659539e-04
      -8.4321550848883969e-03 4.0807192004606975e-03
      1.0749355223104252e-02 -1.1684366576791081e-03
      4.3831885378253464e-03 6.1485523553363721e-03
      -5.1250564153981326e-04 2.0283154675401218e-04
      -6.3029517359884544e-03 1.1768368051111620e-02
      4.9867702134920233e-03 -1.3513613799014824e-02
      -6.1410059837433304e-03 3.7579128520419777e-03
      7.7679129480079856e-06 4.7224570702928560e-03
      -4.2454854304741245e-03 -9.9504364281875167e-03
      -9.9258009384328320e-05 -9.8205386352373560e-03
      -9.3720397806209953e-03 1.2646130424267864e-02
      7.4663865767583852e-03 -5.0993833702090707e-03
      -4.8636018114721052e-03 1.3145889811828142e-02
      6.3442082609183595e-03 -1.0434563499134332e-02
      -3.8404468605869775e-03 4.4393444890997755e-04
      3.1371488157924511e-03 6.3013710773043852e-03
      -4.6425019727116363e-03 -9.3105508082022316e-03
      -7.6175014649402890e-03 1.4604273776970909e-02
      3.1101393331310762e-03 -2.1199652976244226e-03
      1.0146353417489713e-02 -1.2509020563105735e-02
      3.7182379735088101e-03 1.1119789373256380e-02
      6.5584154927434942e-03 -6.2265822300244592e-03
      7.5647689555683071e-03 9.1921848095023382e-04
      6.5831787647946940e-03 -6.8938650424946856e-03
      -3.9541963044480164e-03 1.9989476039483905e-03
      -6.0666037001862261e-03 -6.5131357355348557e-04
      3.0631241796730008e-03 -5.6761785607839467e-03
      9.1780036147037416e-03 -9.7078847436241171e-03
      3.6886075166499338e-03 -3.1054367524553785e-04
      -4.3105086789950496e-03 5.8258765230854229e-03
      -2.4477912806441884e-03 -8.1983822494438429e-03
      -2.7697922241604941e-03 5.2788474492823992e-03
      -3.7969290332880786e-04 -2.2464275978832482e-03
      -1.9202872475270829e-03 6.1765272833922934e-03
      8.8702403999290479e-03 -2.8078686808483714e-03
      -5.9319112521668349e-03 8.5452512279015323e-04
      6.0883149498737223e-03 -6.2358240624488413e-03
      4.4255233534065703e-03 3.2671840047985706e-03
      4.0858445369722747e-03 -5.8421529672519597e-03
      3.6231966797243267e-03 -1.9008343333149120e-03
      7.6686806162567372e-03 6.0990274068797954e-03
      -1.2152461371707363e-04 -5.5010665111830297e-03
      -8.7187723393350944e-03 5.4172882115466553e-03
      4.0706130371367076e-03 -6.4557958104637081e-04
      -6.6605433870437214e-03 -6.0901060776386235e-03
      5.0769100717791430e-04 9.5508686423216235e-03
      -3.5443769604335306e-03 -2.4092583553354274e-03
      1.3604944742612686e-03 5.9184853921491268e-03
      6.4099643220755786e-03 -6.4266162791361990e-03
      -7.7446438825416559e-03 2.1659433301511790e-03
      6.6147536253235040e-03 -7.2212427914678844e-03
      6.4126094752152540e-03 -1.7856859547028751e-04
      4.0114922149605903e-03 3.8978616376078703e-04
      1.2264071464661050e-03 7.8684467243475102e-03
      -1.9850055624734880e-04 -6.2027918254044046e-03
      -2.4549708462235445e-01 -1.4794931149854673e-02
      -2.6167846381408527e-01 1.0562237741747624e-01</_>
    <_>
      -9.5027316875019729e-01 -8.8666628861560037e-01
      3.8726629107156429e-01 4.8539029061408512e-01
      3.0056636532809915e-02 5.8756908916773709e-01
      5.7789354972132478e-01 5.3076223929110600e-01
      1.2680708774558189e-01 6.6053641205213076e-01
      7.3267317894661066e-01 2.4800734440596578e-02
      9.1357591695014229e-02 6.8118071375260492e-01
      -9.6226539297168379e-01 -9.2129374726663260e-01
      5.2025573845499429e-01 -5.8646854345901156e-01
      -4.6584954399077633e-01 1.4995010146335536e-01
      -1.5392116300629963e-01 2.9833160306044532e-01
      -9.1989476680703886e-01 -5.2618199448953151e-01
      -8.4228756700602492e-01 -6.5731680921490743e-01
      -1.7400086975698595e-01 4.7554802022304726e-01
      4.6090009470729498e-01 -6.2739965385727980e-01
      4.2177940069329151e-01 3.4918750642497431e-01
      3.0263268493174095e-01 -4.7596877275907479e-01
      4.1156822988257696e-01 3.6527522527824513e-01
      8.4903224644911324e-01 -6.3740201280415520e-01
      -1.9114972371704501e-02 4.8688329359535670e-01
      -9.6302936909028899e-02 -4.5794571211435403e-01
      -8.4867921560207882e-01 -3.3384506245362650e-01
      -4.3148318296293142e-01 6.0364656420061935e-01
      8.3313793260252544e-01 4.8354426943354822e-01
      -9.3950266084732348e-01 -4.4851197842449210e-02
      4.3353845611139030e-02 -5.8811457239008091e-01
      7.4799636028371830e-03 -9.0605991316589884e-01
      1.3632994814006444e-01 -2.7419234520126295e-01
      -7.6456704449310153e-01 3.7284962185737111e-02
      -2.6221087925523756e-01 7.8954925409776622e-01
      -2.2459481240293858e-01 3.6312727494923480e-01
      7.4310269971298859e-01 -4.3736100092314589e-01
      1.8445284425874578e-01 -2.3997147420581344e-02
      -4.4388429099397675e-01 5.6523151945639205e-01
      3.7648010795641557e-01 9.5561638656692960e-01
      -1.2222876787073003e-01 -6.9409646117270329e-01
      -6.3494735803334335e-01 -2.4129685034454490e-01
      -1.6075502132755107e-01 1.3733907531644335e-01
      8.9563567020995882e-01 -1.4390841210919689e-01
      -2.4954022396712841e-01 5.8328277394129169e-01
      9.0410926570518801e-01 1.4382922990837066e-02
      1.0490363536337609e-01 -2.5284281227171684e-01
      -8.7878203485583939e-01 -5.9706187322653970e-01
      -4.2423131586455159e-01 8.0710695823431167e-01
      7.0150397051734048e-01 -2.0485157644364241e-01
      -7.1721948026539828e-01 -5.5532606923308225e-01
      -1.2934249551765542e-01 9.8975599067588915e-01
      -9.4319026221416824e-01 -3.5648157507527195e-01
      9.7959059038245633e-01 1.4578259960946008e-01
      6.6076810557628360e-02 5.0725735925954374e-01
      -4.9717908401882199e-01 2.6281557060911183e-02
      -1.1550973688053184e-01 -8.6775285069812624e-01
      -4.3716591003040678e-01 -7.3798090866961208e-01
      -3.0791716478803405e-01 -2.6461389928077839e-01
      7.1401488870299745e-01 2.6683788729737812e-01
      -2.4333349039627736e-01 4.2027158386491065e-01
      -3.9082163383863266e-01 -2.6728979590466179e-01
      8.5132376330043535e-01 -4.8980089646353597e-01
      -4.1865994409757012e-01 -3.5073532288446069e-01
      -6.7341912587592723e-01 -5.1135088281494256e-01
      5.1813737664153092e-01 7.9762279357543486e-01
      -1.8314912662181185e-01 -8.0450961754158223e-01
      5.3233976005299488e-01 -2.4025874215892881e-01
      -1.8723855715996332e-01 -7.5382220316702231e-01
      4.2226790129108316e-01 7.1486237218787177e-02</_></weights></my_nn>
</opencv_storage>
